<?xml version="1.0"?>
<opencv_storage>
<cascade>
  <stageType>BOOST</stageType>
  <featureType>HAAR</featureType>
  <height>24</height>
  <width>24</width>
  <stageParams>
    <boostType>GAB</boostType>
    <minHitRate>9.9500000476837158e-01</minHitRate>
    <maxFalseAlarm>5.0000000000000000e-01</maxFalseAlarm>
    <weightTrimRate>9.4999998807907104e-01</weightTrimRate>
    <maxDepth>1</maxDepth>
    <maxWeakCount>100</maxWeakCount></stageParams>
  <featureParams>
    <maxCatCount>0</maxCatCount>
    <featSize>1</featSize>
    <mode>BASIC</mode></featureParams>
  <stageNum>14</stageNum>
  <stages>
    <!-- stage 0 -->
    <_>
      <maxWeakCount>2</maxWeakCount>
      <stageThreshold>-6.6080069541931152e-01</stageThreshold>
      <weakClassifiers>
        <_>
          <internalNodes>
            0 -1 8 -5.6261867284774780e-03</internalNodes>
          <leafValues>
            2.6910299062728882e-01 -9.5488721132278442e-01</leafValues></_>
        <_>
          <internalNodes>
            0 -1 61 -3.6269228439778090e-04</internalNodes>
          <leafValues>
            4.3947297334671021e-01 -9.2990368604660034e-01</leafValues></_></weakClassifiers></_>
    <!-- stage 1 -->
    <_>
      <maxWeakCount>4</maxWeakCount>
      <stageThreshold>-1.0157237052917480e+00</stageThreshold>
      <weakClassifiers>
        <_>
          <internalNodes>
            0 -1 23 -6.6756621003150940e-02</internalNodes>
          <leafValues>
            5.6818181276321411e-01 -7.6335877180099487e-01</leafValues></_>
        <_>
          <internalNodes>
            0 -1 55 -7.9005130100995302e-04</internalNodes>
          <leafValues>
            3.4287306666374207e-01 -9.6435189247131348e-01</leafValues></_>
        <_>
          <internalNodes>
            0 -1 1 2.3832001897972077e-04</internalNodes>
          <leafValues>
            -8.8424742221832275e-01 3.7787783145904541e-01</leafValues></_>
        <_>
          <internalNodes>
            0 -1 73 -1.7720640171319246e-03</internalNodes>
          <leafValues>
            3.3410915732383728e-01 -9.8029327392578125e-01</leafValues></_></weakClassifiers></_>
    <!-- stage 2 -->
    <_>
      <maxWeakCount>4</maxWeakCount>
      <stageThreshold>-9.9918156862258911e-01</stageThreshold>
      <weakClassifiers>
        <_>
          <internalNodes>
            0 -1 25 -2.6686310768127441e-02</internalNodes>
          <leafValues>
            6.0736197233200073e-01 -7.4301677942276001e-01</leafValues></_>
        <_>
          <internalNodes>
            0 -1 65 -6.1489387007895857e-05</internalNodes>
          <leafValues>
            4.2344620823860168e-01 -8.6666321754455566e-01</leafValues></_>
        <_>
          <internalNodes>
            0 -1 62 -2.7654977515339851e-02</internalNodes>
          <leafValues>
            -9.4788575172424316e-01 3.5510009527206421e-01</leafValues></_>
        <_>
          <internalNodes>
            0 -1 77 -3.3483083825558424e-04</internalNodes>
          <leafValues>
            2.6827475428581238e-01 -9.5442652702331543e-01</leafValues></_></weakClassifiers></_>
    <!-- stage 3 -->
    <_>
      <maxWeakCount>4</maxWeakCount>
      <stageThreshold>-6.8572032451629639e-01</stageThreshold>
      <weakClassifiers>
        <_>
          <internalNodes>
            0 -1 20 -5.1845129579305649e-02</internalNodes>
          <leafValues>
            7.4000000953674316e-01 -6.2333333492279053e-01</leafValues></_>
        <_>
          <internalNodes>
            0 -1 5 -1.7330275475978851e-01</internalNodes>
          <leafValues>
            4.9253386259078979e-01 -6.8005800247192383e-01</leafValues></_>
        <_>
          <internalNodes>
            0 -1 66 -1.9293144578114152e-04</internalNodes>
          <leafValues>
            3.3466225862503052e-01 -9.0871638059616089e-01</leafValues></_>
        <_>
          <internalNodes>
            0 -1 2 4.4000433990731835e-04</internalNodes>
          <leafValues>
            -7.9658067226409912e-01 3.5379558801651001e-01</leafValues></_></weakClassifiers></_>
    <!-- stage 4 -->
    <_>
      <maxWeakCount>5</maxWeakCount>
      <stageThreshold>-1.5635790824890137e+00</stageThreshold>
      <weakClassifiers>
        <_>
          <internalNodes>
            0 -1 21 1.5547964721918106e-02</internalNodes>
          <leafValues>
            -7.6100629568099976e-01 2.8251120448112488e-01</leafValues></_>
        <_>
          <internalNodes>
            0 -1 52 1.1282649356871843e-03</internalNodes>
          <leafValues>
            3.4825462102890015e-01 -8.6827367544174194e-01</leafValues></_>
        <_>
          <internalNodes>
            0 -1 4 -2.0649543404579163e-01</internalNodes>
          <leafValues>
            4.7986176609992981e-01 -5.5218172073364258e-01</leafValues></_>
        <_>
          <internalNodes>
            0 -1 35 -6.7964626941829920e-04</internalNodes>
          <leafValues>
            3.1609392166137695e-01 -8.5091191530227661e-01</leafValues></_>
        <_>
          <internalNodes>
            0 -1 57 -1.4850746993033681e-05</internalNodes>
          <leafValues>
            3.3347561955451965e-01 -7.4172878265380859e-01</leafValues></_></weakClassifiers></_>
    <!-- stage 5 -->
    <_>
      <maxWeakCount>5</maxWeakCount>
      <stageThreshold>-9.9936485290527344e-01</stageThreshold>
      <weakClassifiers>
        <_>
          <internalNodes>
            0 -1 45 1.0871883481740952e-02</internalNodes>
          <leafValues>
            -7.9475980997085571e-01 2.6446279883384705e-01</leafValues></_>
        <_>
          <internalNodes>
            0 -1 19 -1.4627489447593689e-01</internalNodes>
          <leafValues>
            7.1015405654907227e-01 -4.7230395674705505e-01</leafValues></_>
        <_>
          <internalNodes>
            0 -1 60 -2.1064591128379107e-03</internalNodes>
          <leafValues>
            -9.1541939973831177e-01 3.5265502333641052e-01</leafValues></_>
        <_>
          <internalNodes>
            0 -1 39 -5.0617124885320663e-02</internalNodes>
          <leafValues>
            8.8182485103607178e-01 -3.3343988656997681e-01</leafValues></_>
        <_>
          <internalNodes>
            0 -1 15 -1.9640766549855471e-04</internalNodes>
          <leafValues>
            -9.1057950258255005e-01 3.3410015702247620e-01</leafValues></_></weakClassifiers></_>
    <!-- stage 6 -->
    <_>
      <maxWeakCount>5</maxWeakCount>
      <stageThreshold>-1.8135137557983398e+00</stageThreshold>
      <weakClassifiers>
        <_>
          <internalNodes>
            0 -1 34 -3.8675718009471893e-02</internalNodes>
          <leafValues>
            4.1463413834571838e-01 -6.8656718730926514e-01</leafValues></_>
        <_>
          <internalNodes>
            0 -1 64 1.9965658430010080e-03</internalNodes>
          <leafValues>
            2.9903206229209900e-01 -9.4730156660079956e-01</leafValues></_>
        <_>
          <internalNodes>
            0 -1 63 -7.2369957342743874e-04</internalNodes>
          <leafValues>
            2.2312098741531372e-01 -8.6869138479232788e-01</leafValues></_>
        <_>
          <internalNodes>
            0 -1 57 -8.2240102346986532e-04</internalNodes>
          <leafValues>
            -8.6001229286193848e-01 2.3592144250869751e-01</leafValues></_>
        <_>
          <internalNodes>
            0 -1 68 -7.4384448816999793e-04</internalNodes>
          <leafValues>
            2.6353117823600769e-01 -7.9320871829986572e-01</leafValues></_></weakClassifiers></_>
    <!-- stage 7 -->
    <_>
      <maxWeakCount>4</maxWeakCount>
      <stageThreshold>-9.6344536542892456e-01</stageThreshold>
      <weakClassifiers>
        <_>
          <internalNodes>
            0 -1 13 -1.8626831471920013e-02</internalNodes>
          <leafValues>
            3.4463277459144592e-01 -6.9024854898452759e-01</leafValues></_>
        <_>
          <internalNodes>
            0 -1 17 -2.8316528187133372e-04</internalNodes>
          <leafValues>
            2.1630340814590454e-01 -8.2984477281570435e-01</leafValues></_>
        <_>
          <internalNodes>
            0 -1 51 -2.0595855312421918e-04</internalNodes>
          <leafValues>
            3.2191812992095947e-01 -7.2912317514419556e-01</leafValues></_>
        <_>
          <internalNodes>
            0 -1 51 -1.0850701946765184e-03</internalNodes>
          <leafValues>
            -9.7927004098892212e-01 2.3962295055389404e-01</leafValues></_></weakClassifiers></_>
    <!-- stage 8 -->
    <_>
      <maxWeakCount>6</maxWeakCount>
      <stageThreshold>-1.5699954032897949e+00</stageThreshold>
      <weakClassifiers>
        <_>
          <internalNodes>
            0 -1 45 1.2366910465061665e-02</internalNodes>
          <leafValues>
            -7.6470589637756348e-01 2.1161825954914093e-01</leafValues></_>
        <_>
          <internalNodes>
            0 -1 58 -2.2489874390885234e-04</internalNodes>
          <leafValues>
            2.2586402297019958e-01 -8.2736110687255859e-01</leafValues></_>
        <_>
          <internalNodes>
            0 -1 74 -9.1069303452968597e-03</internalNodes>
          <leafValues>
            -8.2266557216644287e-01 2.1240715682506561e-01</leafValues></_>
        <_>
          <internalNodes>
            0 -1 75 -9.4861356774345040e-04</internalNodes>
          <leafValues>
            3.2909071445465088e-01 -9.7343939542770386e-01</leafValues></_>
        <_>
          <internalNodes>
            0 -1 49 -8.2114280667155981e-04</internalNodes>
          <leafValues>
            2.0186586678028107e-01 -7.1598023176193237e-01</leafValues></_>
        <_>
          <internalNodes>
            0 -1 28 -7.0623755455017090e-03</internalNodes>
          <leafValues>
            5.0445538759231567e-01 -4.7198712825775146e-01</leafValues></_></weakClassifiers></_>
    <!-- stage 9 -->
    <_>
      <maxWeakCount>7</maxWeakCount>
      <stageThreshold>-1.2392836809158325e+00</stageThreshold>
      <weakClassifiers>
        <_>
          <internalNodes>
            0 -1 16 -1.0719592869281769e-01</internalNodes>
          <leafValues>
            2.3152709007263184e-01 -6.9818913936614990e-01</leafValues></_>
        <_>
          <internalNodes>
            0 -1 0 1.1672731488943100e-04</internalNodes>
          <leafValues>
            -7.4897879362106323e-01 2.0636364817619324e-01</leafValues></_>
        <_>
          <internalNodes>
            0 -1 6 -6.7410478368401527e-04</internalNodes>
          <leafValues>
            2.2903050482273102e-01 -8.3523452281951904e-01</leafValues></_>
        <_>
          <internalNodes>
            0 -1 76 -1.6475878655910492e-03</internalNodes>
          <leafValues>
            -8.4295386075973511e-01 2.2413901984691620e-01</leafValues></_>
        <_>
          <internalNodes>
            0 -1 54 -1.4695826394017786e-05</internalNodes>
          <leafValues>
            1.9721797108650208e-01 -9.0511673688888550e-01</leafValues></_>
        <_>
          <internalNodes>
            0 -1 10 -1.4707387890666723e-04</internalNodes>
          <leafValues>
            3.3575043082237244e-01 -5.6928992271423340e-01</leafValues></_>
        <_>
          <internalNodes>
            0 -1 50 -4.3386354809626937e-04</internalNodes>
          <leafValues>
            2.8883916139602661e-01 -6.8989962339401245e-01</leafValues></_></weakClassifiers></_>
    <!-- stage 10 -->
    <_>
      <maxWeakCount>8</maxWeakCount>
      <stageThreshold>-1.8411076068878174e+00</stageThreshold>
      <weakClassifiers>
        <_>
          <internalNodes>
            0 -1 43 1.2868929654359818e-02</internalNodes>
          <leafValues>
            -7.8743958473205566e-01 9.0909093618392944e-02</leafValues></_>
        <_>
          <internalNodes>
            0 -1 37 -1.5009382739663124e-02</internalNodes>
          <leafValues>
            5.7682394981384277e-01 -3.9704284071922302e-01</leafValues></_>
        <_>
          <internalNodes>
            0 -1 12 9.4490998890250921e-05</internalNodes>
          <leafValues>
            -8.3350712060928345e-01 2.2957096993923187e-01</leafValues></_>
        <_>
          <internalNodes>
            0 -1 47 -5.7702837511897087e-04</internalNodes>
          <leafValues>
            2.1989656984806061e-01 -8.9554178714752197e-01</leafValues></_>
        <_>
          <internalNodes>
            0 -1 41 -5.4255060851573944e-02</internalNodes>
          <leafValues>
            7.5845575332641602e-01 -2.8525942564010620e-01</leafValues></_>
        <_>
          <internalNodes>
            0 -1 46 -3.6560866283252835e-04</internalNodes>
          <leafValues>
            3.4526348114013672e-01 -7.1588790416717529e-01</leafValues></_>
        <_>
          <internalNodes>
            0 -1 27 -9.0819550678133965e-03</internalNodes>
          <leafValues>
            5.6762611865997314e-01 -3.9378291368484497e-01</leafValues></_>
        <_>
          <internalNodes>
            0 -1 9 3.8317800499498844e-03</internalNodes>
          <leafValues>
            2.8883758187294006e-01 -6.9484066963195801e-01</leafValues></_></weakClassifiers></_>
    <!-- stage 11 -->
    <_>
      <maxWeakCount>10</maxWeakCount>
      <stageThreshold>-1.6761054992675781e+00</stageThreshold>
      <weakClassifiers>
        <_>
          <internalNodes>
            0 -1 36 -6.6930148750543594e-03</internalNodes>
          <leafValues>
            2.4651162326335907e-01 -7.2783505916595459e-01</leafValues></_>
        <_>
          <internalNodes>
            0 -1 22 -2.0809410139918327e-02</internalNodes>
          <leafValues>
            5.6077027320861816e-01 -4.1188195347785950e-01</leafValues></_>
        <_>
          <internalNodes>
            0 -1 18 -1.6429282259196043e-03</internalNodes>
          <leafValues>
            2.8592470288276672e-01 -7.1111834049224854e-01</leafValues></_>
        <_>
          <internalNodes>
            0 -1 69 -2.9107386944815516e-04</internalNodes>
          <leafValues>
            1.8947696685791016e-01 -8.3684754371643066e-01</leafValues></_>
        <_>
          <internalNodes>
            0 -1 67 -2.7295632753521204e-03</internalNodes>
          <leafValues>
            -8.3086442947387695e-01 2.4581363797187805e-01</leafValues></_>
        <_>
          <internalNodes>
            0 -1 29 -6.7424342036247253e-02</internalNodes>
          <leafValues>
            5.9615701436996460e-01 -3.5573959350585938e-01</leafValues></_>
        <_>
          <internalNodes>
            0 -1 48 -1.1330941924825311e-04</internalNodes>
          <leafValues>
            2.6534041762351990e-01 -6.9821542501449585e-01</leafValues></_>
        <_>
          <internalNodes>
            0 -1 40 -7.3495274409651756e-03</internalNodes>
          <leafValues>
            4.9243438243865967e-01 -4.1051945090293884e-01</leafValues></_>
        <_>
          <internalNodes>
            0 -1 7 -8.7587011512368917e-04</internalNodes>
          <leafValues>
            2.0238989591598511e-01 -9.6064221858978271e-01</leafValues></_>
        <_>
          <internalNodes>
            0 -1 59 2.6361683849245310e-03</internalNodes>
          <leafValues>
            1.2785141170024872e-01 -9.4157820940017700e-01</leafValues></_></weakClassifiers></_>
    <!-- stage 12 -->
    <_>
      <maxWeakCount>9</maxWeakCount>
      <stageThreshold>-1.4746369123458862e+00</stageThreshold>
      <weakClassifiers>
        <_>
          <internalNodes>
            0 -1 33 -2.6121761649847031e-02</internalNodes>
          <leafValues>
            4.2622949928045273e-02 -7.9240506887435913e-01</leafValues></_>
        <_>
          <internalNodes>
            0 -1 3 -1.1223256587982178e-02</internalNodes>
          <leafValues>
            2.8836593031883240e-01 -5.3711569309234619e-01</leafValues></_>
        <_>
          <internalNodes>
            0 -1 70 -1.8353364430367947e-04</internalNodes>
          <leafValues>
            2.3078607022762299e-01 -7.0037537813186646e-01</leafValues></_>
        <_>
          <internalNodes>
            0 -1 14 2.0413543097674847e-04</internalNodes>
          <leafValues>
            -6.2873971462249756e-01 2.8034818172454834e-01</leafValues></_>
        <_>
          <internalNodes>
            0 -1 53 -9.3862312496639788e-05</internalNodes>
          <leafValues>
            -6.3465887308120728e-01 2.9012989997863770e-01</leafValues></_>
        <_>
          <internalNodes>
            0 -1 11 -8.2361605018377304e-03</internalNodes>
          <leafValues>
            4.4738647341728210e-01 -4.0522751212120056e-01</leafValues></_>
        <_>
          <internalNodes>
            0 -1 72 -2.5229197926819324e-03</internalNodes>
          <leafValues>
            2.2861739993095398e-01 -8.5514658689498901e-01</leafValues></_>
        <_>
          <internalNodes>
            0 -1 42 -2.7046613395214081e-02</internalNodes>
          <leafValues>
            7.2795778512954712e-01 -2.7461501955986023e-01</leafValues></_>
        <_>
          <internalNodes>
            0 -1 38 9.6681397408246994e-03</internalNodes>
          <leafValues>
            -3.4172764420509338e-01 6.4508277177810669e-01</leafValues></_></weakClassifiers></_>
    <!-- stage 13 -->
    <_>
      <maxWeakCount>8</maxWeakCount>
      <stageThreshold>-1.6142774820327759e+00</stageThreshold>
      <weakClassifiers>
        <_>
          <internalNodes>
            0 -1 32 -4.2130514979362488e-02</internalNodes>
          <leafValues>
            1.0843373835086823e-01 -7.2505545616149902e-01</leafValues></_>
        <_>
          <internalNodes>
            0 -1 71 -4.2727007530629635e-04</internalNodes>
          <leafValues>
            -1. 8.0984994769096375e-02</leafValues></_>
        <_>
          <internalNodes>
            0 -1 26 6.2656297814100981e-04</internalNodes>
          <leafValues>
            -4.9908736348152161e-01 3.5551714897155762e-01</leafValues></_>
        <_>
          <internalNodes>
            0 -1 24 1.6428937669843435e-05</internalNodes>
          <leafValues>
            -6.4533340930938721e-01 2.5049918889999390e-01</leafValues></_>
        <_>
          <internalNodes>
            0 -1 56 -1.7289843526668847e-04</internalNodes>
          <leafValues>
            2.1086981892585754e-01 -7.4855846166610718e-01</leafValues></_>
        <_>
          <internalNodes>
            0 -1 44 3.3339881338179111e-03</internalNodes>
          <leafValues>
            -5.3620892763137817e-01 3.4236985445022583e-01</leafValues></_>
        <_>
          <internalNodes>
            0 -1 31 -1.1111161438748240e-04</internalNodes>
          <leafValues>
            2.1341010928153992e-01 -8.1614696979522705e-01</leafValues></_>
        <_>
          <internalNodes>
            0 -1 30 -5.3696674294769764e-03</internalNodes>
          <leafValues>
            4.6912387013435364e-01 -4.5871159434318542e-01</leafValues></_></weakClassifiers></_></stages>
  <features>
    <_>
      <rects>
        <_>
          0 0 1 4 -1.</_>
        <_>
          0 2 1 2 2.</_></rects>
      <tilted>0</tilted></_>
    <_>
      <rects>
        <_>
          0 0 2 6 -1.</_>
        <_>
          0 3 2 3 2.</_></rects>
      <tilted>0</tilted></_>
    <_>
      <rects>
        <_>
          0 0 8 1 -1.</_>
        <_>
          4 0 4 1 2.</_></rects>
      <tilted>0</tilted></_>
    <_>
      <rects>
        <_>
          0 0 16 9 -1.</_>
        <_>
          0 3 16 3 3.</_></rects>
      <tilted>0</tilted></_>
    <_>
      <rects>
        <_>
          0 3 18 20 -1.</_>
        <_>
          9 3 9 20 2.</_></rects>
      <tilted>0</tilted></_>
    <_>
      <rects>
        <_>
          0 8 17 16 -1.</_>
        <_>
          0 16 17 8 2.</_></rects>
      <tilted>0</tilted></_>
    <_>
      <rects>
        <_>
          0 13 1 8 -1.</_>
        <_>
          0 17 1 4 2.</_></rects>
      <tilted>0</tilted></_>
    <_>
      <rects>
        <_>
          0 16 1 8 -1.</_>
        <_>
          0 20 1 4 2.</_></rects>
      <tilted>0</tilted></_>
    <_>
      <rects>
        <_>
          0 18 7 6 -1.</_>
        <_>
          0 21 7 3 2.</_></rects>
      <tilted>0</tilted></_>
    <_>
      <rects>
        <_>
          0 19 4 5 -1.</_>
        <_>
          2 19 2 5 2.</_></rects>
      <tilted>0</tilted></_>
    <_>
      <rects>
        <_>
          0 19 14 2 -1.</_>
        <_>
          0 19 7 1 2.</_>
        <_>
          7 20 7 1 2.</_></rects>
      <tilted>0</tilted></_>
    <_>
      <rects>
        <_>
          0 22 14 1 -1.</_>
        <_>
          7 22 7 1 2.</_></rects>
      <tilted>0</tilted></_>
    <_>
      <rects>
        <_>
          1 0 1 6 -1.</_>
        <_>
          1 3 1 3 2.</_></rects>
      <tilted>0</tilted></_>
    <_>
      <rects>
        <_>
          1 0 16 4 -1.</_>
        <_>
          1 0 8 2 2.</_>
        <_>
          9 2 8 2 2.</_></rects>
      <tilted>0</tilted></_>
    <_>
      <rects>
        <_>
          1 2 4 2 -1.</_>
        <_>
          3 2 2 2 2.</_></rects>
      <tilted>0</tilted></_>
    <_>
      <rects>
        <_>
          1 22 2 2 -1.</_>
        <_>
          2 22 1 2 2.</_></rects>
      <tilted>0</tilted></_>
    <_>
      <rects>
        <_>
          2 3 21 5 -1.</_>
        <_>
          9 3 7 5 3.</_></rects>
      <tilted>0</tilted></_>
    <_>
      <rects>
        <_>
          2 20 1 4 -1.</_>
        <_>
          2 22 1 2 2.</_></rects>
      <tilted>0</tilted></_>
    <_>
      <rects>
        <_>
          3 20 15 2 -1.</_>
        <_>
          3 21 15 1 2.</_></rects>
      <tilted>0</tilted></_>
    <_>
      <rects>
        <_>
          4 3 12 21 -1.</_>
        <_>
          8 3 4 21 3.</_></rects>
      <tilted>0</tilted></_>
    <_>
      <rects>
        <_>
          4 4 15 2 -1.</_>
        <_>
          9 4 5 2 3.</_></rects>
      <tilted>0</tilted></_>
    <_>
      <rects>
        <_>
          4 4 12 6 -1.</_>
        <_>
          4 7 12 3 2.</_></rects>
      <tilted>0</tilted></_>
    <_>
      <rects>
        <_>
          4 18 12 2 -1.</_>
        <_>
          8 18 4 2 3.</_></rects>
      <tilted>0</tilted></_>
    <_>
      <rects>
        <_>
          4 19 18 4 -1.</_>
        <_>
          10 19 6 4 3.</_></rects>
      <tilted>0</tilted></_>
    <_>
      <rects>
        <_>
          5 0 1 4 -1.</_>
        <_>
          5 2 1 2 2.</_></rects>
      <tilted>0</tilted></_>
    <_>
      <rects>
        <_>
          5 3 8 5 -1.</_>
        <_>
          9 3 4 5 2.</_></rects>
      <tilted>0</tilted></_>
    <_>
      <rects>
        <_>
          5 6 11 2 -1.</_>
        <_>
          5 7 11 1 2.</_></rects>
      <tilted>0</tilted></_>
    <_>
      <rects>
        <_>
          5 21 12 1 -1.</_>
        <_>
          9 21 4 1 3.</_></rects>
      <tilted>0</tilted></_>
    <_>
      <rects>
        <_>
          7 1 11 6 -1.</_>
        <_>
          7 3 11 2 3.</_></rects>
      <tilted>0</tilted></_>
    <_>
      <rects>
        <_>
          7 2 15 7 -1.</_>
        <_>
          12 2 5 7 3.</_></rects>
      <tilted>0</tilted></_>
    <_>
      <rects>
        <_>
          7 10 6 4 -1.</_>
        <_>
          9 10 2 4 3.</_></rects>
      <tilted>0</tilted></_>
    <_>
      <rects>
        <_>
          7 18 4 2 -1.</_>
        <_>
          7 19 4 1 2.</_></rects>
      <tilted>0</tilted></_>
    <_>
      <rects>
        <_>
          8 17 12 6 -1.</_>
        <_>
          12 17 4 6 3.</_></rects>
      <tilted>0</tilted></_>
    <_>
      <rects>
        <_>
          8 18 12 6 -1.</_>
        <_>
          12 18 4 6 3.</_></rects>
      <tilted>0</tilted></_>
    <_>
      <rects>
        <_>
          9 0 8 9 -1.</_>
        <_>
          9 3 8 3 3.</_></rects>
      <tilted>0</tilted></_>
    <_>
      <rects>
        <_>
          9 18 10 2 -1.</_>
        <_>
          9 19 10 1 2.</_></rects>
      <tilted>0</tilted></_>
    <_>
      <rects>
        <_>
          9 20 12 1 -1.</_>
        <_>
          13 20 4 1 3.</_></rects>
      <tilted>0</tilted></_>
    <_>
      <rects>
        <_>
          10 0 8 4 -1.</_>
        <_>
          10 2 8 2 2.</_></rects>
      <tilted>0</tilted></_>
    <_>
      <rects>
        <_>
          10 5 4 7 -1.</_>
        <_>
          12 5 2 7 2.</_></rects>
      <tilted>0</tilted></_>
    <_>
      <rects>
        <_>
          11 10 6 10 -1.</_>
        <_>
          14 10 3 10 2.</_></rects>
      <tilted>0</tilted></_>
    <_>
      <rects>
        <_>
          12 4 12 6 -1.</_>
        <_>
          12 4 6 3 2.</_>
        <_>
          18 7 6 3 2.</_></rects>
      <tilted>0</tilted></_>
    <_>
      <rects>
        <_>
          12 13 12 11 -1.</_>
        <_>
          16 13 4 11 3.</_></rects>
      <tilted>0</tilted></_>
    <_>
      <rects>
        <_>
          12 16 12 4 -1.</_>
        <_>
          16 16 4 4 3.</_></rects>
      <tilted>0</tilted></_>
    <_>
      <rects>
        <_>
          12 20 12 2 -1.</_>
        <_>
          18 20 6 2 2.</_></rects>
      <tilted>0</tilted></_>
    <_>
      <rects>
        <_>
          12 20 12 3 -1.</_>
        <_>
          18 20 6 3 2.</_></rects>
      <tilted>0</tilted></_>
    <_>
      <rects>
        <_>
          13 20 10 2 -1.</_>
        <_>
          18 20 5 2 2.</_></rects>
      <tilted>0</tilted></_>
    <_>
      <rects>
        <_>
          19 0 2 7 -1.</_>
        <_>
          20 0 1 7 2.</_></rects>
      <tilted>0</tilted></_>
    <_>
      <rects>
        <_>
          19 17 4 4 -1.</_>
        <_>
          19 19 4 2 2.</_></rects>
      <tilted>0</tilted></_>
    <_>
      <rects>
        <_>
          20 0 2 2 -1.</_>
        <_>
          21 0 1 2 2.</_></rects>
      <tilted>0</tilted></_>
    <_>
      <rects>
        <_>
          20 6 2 11 -1.</_>
        <_>
          21 6 1 11 2.</_></rects>
      <tilted>0</tilted></_>
    <_>
      <rects>
        <_>
          20 13 2 7 -1.</_>
        <_>
          21 13 1 7 2.</_></rects>
      <tilted>0</tilted></_>
    <_>
      <rects>
        <_>
          21 1 2 2 -1.</_>
        <_>
          22 1 1 2 2.</_></rects>
      <tilted>0</tilted></_>
    <_>
      <rects>
        <_>
          21 1 3 13 -1.</_>
        <_>
          22 1 1 13 3.</_></rects>
      <tilted>0</tilted></_>
    <_>
      <rects>
        <_>
          21 4 2 18 -1.</_>
        <_>
          21 4 1 9 2.</_>
        <_>
          22 13 1 9 2.</_></rects>
      <tilted>0</tilted></_>
    <_>
      <rects>
        <_>
          21 15 3 4 -1.</_>
        <_>
          21 17 3 2 2.</_></rects>
      <tilted>0</tilted></_>
    <_>
      <rects>
        <_>
          21 16 2 6 -1.</_>
        <_>
          21 19 2 3 2.</_></rects>
      <tilted>0</tilted></_>
    <_>
      <rects>
        <_>
          21 18 2 6 -1.</_>
        <_>
          22 18 1 6 2.</_></rects>
      <tilted>0</tilted></_>
    <_>
      <rects>
        <_>
          21 19 2 3 -1.</_>
        <_>
          22 19 1 3 2.</_></rects>
      <tilted>0</tilted></_>
    <_>
      <rects>
        <_>
          22 0 2 2 -1.</_>
        <_>
          23 0 1 2 2.</_></rects>
      <tilted>0</tilted></_>
    <_>
      <rects>
        <_>
          22 0 2 6 -1.</_>
        <_>
          22 3 2 3 2.</_></rects>
      <tilted>0</tilted></_>
    <_>
      <rects>
        <_>
          22 0 2 10 -1.</_>
        <_>
          22 5 2 5 2.</_></rects>
      <tilted>0</tilted></_>
    <_>
      <rects>
        <_>
          22 1 2 3 -1.</_>
        <_>
          23 1 1 3 2.</_></rects>
      <tilted>0</tilted></_>
    <_>
      <rects>
        <_>
          22 1 2 22 -1.</_>
        <_>
          22 12 2 11 2.</_></rects>
      <tilted>0</tilted></_>
    <_>
      <rects>
        <_>
          22 2 2 6 -1.</_>
        <_>
          23 2 1 6 2.</_></rects>
      <tilted>0</tilted></_>
    <_>
      <rects>
        <_>
          22 2 2 6 -1.</_>
        <_>
          22 5 2 3 2.</_></rects>
      <tilted>0</tilted></_>
    <_>
      <rects>
        <_>
          22 7 2 1 -1.</_>
        <_>
          23 7 1 1 2.</_></rects>
      <tilted>0</tilted></_>
    <_>
      <rects>
        <_>
          22 10 2 3 -1.</_>
        <_>
          23 10 1 3 2.</_></rects>
      <tilted>0</tilted></_>
    <_>
      <rects>
        <_>
          22 14 2 8 -1.</_>
        <_>
          23 14 1 8 2.</_></rects>
      <tilted>0</tilted></_>
    <_>
      <rects>
        <_>
          22 14 2 10 -1.</_>
        <_>
          23 14 1 10 2.</_></rects>
      <tilted>0</tilted></_>
    <_>
      <rects>
        <_>
          22 16 2 4 -1.</_>
        <_>
          23 16 1 4 2.</_></rects>
      <tilted>0</tilted></_>
    <_>
      <rects>
        <_>
          22 19 2 3 -1.</_>
        <_>
          23 19 1 3 2.</_></rects>
      <tilted>0</tilted></_>
    <_>
      <rects>
        <_>
          22 21 2 1 -1.</_>
        <_>
          23 21 1 1 2.</_></rects>
      <tilted>0</tilted></_>
    <_>
      <rects>
        <_>
          23 0 1 22 -1.</_>
        <_>
          23 11 1 11 2.</_></rects>
      <tilted>0</tilted></_>
    <_>
      <rects>
        <_>
          23 3 1 18 -1.</_>
        <_>
          23 12 1 9 2.</_></rects>
      <tilted>0</tilted></_>
    <_>
      <rects>
        <_>
          23 5 1 18 -1.</_>
        <_>
          23 14 1 9 2.</_></rects>
      <tilted>0</tilted></_>
    <_>
      <rects>
        <_>
          23 13 1 10 -1.</_>
        <_>
          23 18 1 5 2.</_></rects>
      <tilted>0</tilted></_>
    <_>
      <rects>
        <_>
          23 14 1 6 -1.</_>
        <_>
          23 17 1 3 2.</_></rects>
      <tilted>0</tilted></_>
    <_>
      <rects>
        <_>
          23 18 1 6 -1.</_>
        <_>
          23 21 1 3 2.</_></rects>
      <tilted>0</tilted></_></features></cascade>
</opencv_storage>
